
// ============================================================
// All x — LightGBM 4. Model (tam 900 ağaç)
// Otomatik üretildi (Colab + m2cgen). Elle düzenleme.
// Özellik sırası: ['ax', 'rax', 'xgot', 'rxgot', 'sut', 'rsut', 'bf', 'rbf', 'ci', 'rci', 'rc', 'kurt', 'fark_ax', 'fark_xgot', 'fark_bf']
// Oran dahil: False
// Zaman sıralı test doğruluğu: %56.5
// ============================================================

// LightGBM özellik sırası (panel bu sırayla beslemeli)
var LGBM_OZELLIKLER = ["ax", "rax", "xgot", "rxgot", "sut", "rsut", "bf", "rbf", "ci", "rci", "rc", "kurt", "fark_ax", "fark_xgot", "fark_bf"];

function lgbmRaw(input) {
    var var0;
    if (input[14] <= -0.000000000000000000000000000000000010000000180025095) {
        if (input[3] > 0.9250000000000002) {
            if (input[0] > 0.5550000000000002) {
                if (input[3] > 1.0450000000000002) {
                    var0 = -0.9806467971609825;
                } else {
                    var0 = -1.0039835486885942;
                }
            } else {
                var0 = -0.9666577040239788;
            }
        } else {
            if (input[0] > 0.34500000000000003) {
                if (input[12] > 0.1500000000000001) {
                    var0 = -1.0223358469919415;
                } else {
                    var0 = -1.008066668283162;
                }
            } else {
                if (input[3] > 0.5350000000000001) {
                    var0 = -0.9812748798492603;
                } else {
                    if (input[0] > 0.18500000000000003) {
                        var0 = -1.0168790174804545;
                    } else {
                        var0 = -0.990993514276599;
                    }
                }
            }
        }
    } else {
        if (input[12] > 0.07499999999999997) {
            if (input[12] > 0.8850000000000002) {
                var0 = -1.0479405455675916;
            } else {
                if (input[3] > 0.32500000000000007) {
                    var0 = -1.0275058955380325;
                } else {
                    var0 = -1.0400596126506594;
                }
            }
        } else {
            if (input[3] > 0.48500000000000004) {
                if (input[11] > 3.5000000000000004) {
                    var0 = -1.0190061338084788;
                } else {
                    if (input[14] > 0.000000000000000000000000000000000010000000180025095) {
                        var0 = -1.014545818998018;
                    } else {
                        var0 = -0.9896565907005085;
                    }
                }
            } else {
                var0 = -1.0311402141351291;
            }
        }
    }
    var var1;
    if (input[14] <= -0.000000000000000000000000000000000010000000180025095) {
        if (input[3] > 0.9250000000000002) {
            if (input[0] > 0.5550000000000002) {
                if (input[3] > 1.0450000000000002) {
                    var1 = 0.035326337531865475;
                } else {
                    var1 = 0.013011660295294228;
                }
            } else {
                var1 = 0.04838818774537744;
            }
        } else {
            if (input[2] > 0.2750000000000001) {
                if (input[3] > 0.5950000000000001) {
                    if (input[0] > 0.7650000000000001) {
                        var1 = -0.0017307106198621361;
                    } else {
                        var1 = 0.021994510408000843;
                    }
                } else {
                    var1 = -0.010177676523306608;
                }
            } else {
                var1 = 0.02230300081902026;
            }
        }
    } else {
        if (input[3] > 0.48500000000000004) {
            if (input[2] > 1.0450000000000002) {
                var1 = -0.01929515508703707;
            } else {
                if (input[2] > 0.26500000000000007) {
                    if (input[3] > 1.1250000000000002) {
                        var1 = 0.017928165577162748;
                    } else {
                        var1 = -0.0031453574510988533;
                    }
                } else {
                    var1 = 0.022262532270325187;
                }
            }
        } else {
            if (input[2] > 0.8250000000000001) {
                var1 = -0.0310189297767013;
            } else {
                if (input[3] > 0.09500000000000001) {
                    if (input[11] > 1.5000000000000002) {
                        var1 = -0.014998905051511927;
                    } else {
                        var1 = 0.00017168091952659645;
                    }
                } else {
                    var1 = -0.02703830093760029;
                }
            }
        }
    }
    var var2;
    if (input[14] <= -0.000000000000000000000000000000000010000000180025095) {
        if (input[3] > 0.9250000000000002) {
            if (input[6] > 1.5000000000000002) {
                if (input[3] > 1.175) {
                    var2 = 0.031816059137490325;
                } else {
                    var2 = 0.011674539918397822;
                }
            } else {
                var2 = 0.04349912022527226;
            }
        } else {
            if (input[2] > 0.2750000000000001) {
                if (input[3] > 0.5950000000000001) {
                    if (input[1] > 0.9950000000000001) {
                        var2 = 0.0004270611912012296;
                    } else {
                        var2 = 0.021441311151451304;
                    }
                } else {
                    var2 = -0.009913678058995876;
                }
            } else {
                var2 = 0.0213773129389017;
            }
        }
    } else {
        if (input[12] > 0.07499999999999997) {
            if (input[12] > 0.9050000000000001) {
                var2 = -0.02928598681160185;
            } else {
                if (input[3] > 0.32500000000000007) {
                    var2 = -0.009423971449212558;
                } else {
                    var2 = -0.02134967067523772;
                }
            }
        } else {
            if (input[3] > 0.48500000000000004) {
                if (input[2] > 0.26500000000000007) {
                    if (input[1] > 1.0350000000000004) {
                        var2 = 0.008496869692268151;
                    } else {
                        var2 = -0.008163450929862355;
                    }
                } else {
                    var2 = 0.028820437078156246;
                }
            } else {
                if (input[12] > 0.014999999999999987) {
                    var2 = 0.0005963993615176944;
                } else {
                    var2 = -0.01601494903259538;
                }
            }
        }
    }
    var var3;
    if (input[13] <= -0.014999999999999956) {
        if (input[14] <= -1.4999999999999998) {
            if (input[13] <= -1.0749999999999997) {
                var3 = 0.045381982569231975;
            } else {
                if (input[0] > 0.7150000000000001) {
                    var3 = 0.016061282320067597;
                } else {
                    if (input[11] > 4.500000000000001) {
                        var3 = 0.024252443038709864;
                    } else {
                        var3 = 0.03875178100312616;
                    }
                }
            }
        } else {
            if (input[13] <= -0.24999999999999992) {
                if (input[11] > 4.500000000000001) {
                    var3 = 0.006205096944770993;
                } else {
                    if (input[2] > 0.25500000000000006) {
                        if (input[0] > 0.9850000000000001) {
                            var3 = 0.028704687264030665;
                        } else {
                            var3 = 0.003032658013301436;
                        }
                    } else {
                        if (input[13] <= -0.5649999999999998) {
                            var3 = 0.04486072612980755;
                        } else {
                            var3 = 0.022282397782173623;
                        }
                    }
                }
            } else {
                if (input[11] > 3.5000000000000004) {
                    var3 = -0.011561260459645919;
                } else {
                    var3 = 0.010106154917153191;
                }
            }
        }
    } else {
        if (input[14] <= -0.000000000000000000000000000000000010000000180025095) {
            if (input[13] > 0.2400000000000001) {
                var3 = -0.015966242065793793;
            } else {
                var3 = 0.0004970649637124721;
            }
        } else {
            if (input[13] > 0.41000000000000014) {
                var3 = -0.02737470909231951;
            } else {
                var3 = -0.01967287690905271;
            }
        }
    }
    var var4;
    if (input[14] <= -0.000000000000000000000000000000000010000000180025095) {
        if (input[14] <= -2.4999999999999996) {
            if (input[14] <= -3.4999999999999996) {
                var4 = 0.04023296382056405;
            } else {
                var4 = 0.02631387126250962;
            }
        } else {
            if (input[2] > 0.36500000000000005) {
                if (input[1] > 0.6050000000000001) {
                    if (input[10] > 23.500000000000004) {
                        var4 = 0.015499447112341077;
                    } else {
                        if (input[2] > 0.7750000000000001) {
                            var4 = -0.012996686420736184;
                        } else {
                            var4 = 0.008468621956070147;
                        }
                    }
                } else {
                    var4 = -0.017175098508073944;
                }
            } else {
                if (input[1] > 1.195) {
                    var4 = 0.034246414483887024;
                } else {
                    var4 = 0.016608861711262878;
                }
            }
        }
    } else {
        if (input[14] > 0.000000000000000000000000000000000010000000180025095) {
            if (input[2] > 0.6850000000000002) {
                var4 = -0.025526864958014154;
            } else {
                if (input[1] > 0.7250000000000001) {
                    var4 = -0.0012072592192357943;
                } else {
                    if (input[4] > 16.500000000000004) {
                        var4 = -0.00451286380668389;
                    } else {
                        var4 = -0.02173559414793488;
                    }
                }
            }
        } else {
            if (input[1] > 0.8850000000000001) {
                if (input[2] > 0.6150000000000001) {
                    var4 = -0.0022501539531994794;
                } else {
                    var4 = 0.02153161061588801;
                }
            } else {
                var4 = -0.008905249878805716;
            }
        }
    }
    var var5;
    if (input[13] <= -0.014999999999999956) {
        if (input[14] <= -1.4999999999999998) {
            if (input[13] <= -1.0749999999999997) {
                var5 = 0.041927236213471504;
            } else {
                if (input[0] > 0.6850000000000002) {
                    var5 = 0.014960355099469002;
                } else {
                    if (input[4] > 9.500000000000002) {
                        var5 = 0.040518924057946;
                    } else {
                        if (input[1] > 1.385) {
                            var5 = 0.03940172256651142;
                        } else {
                            var5 = 0.017000368492634144;
                        }
                    }
                }
            }
        } else {
            if (input[13] <= -0.24999999999999992) {
                if (input[11] > 4.500000000000001) {
                    var5 = 0.0055228611997483815;
                } else {
                    if (input[13] <= -0.7749999999999998) {
                        var5 = 0.03547191103106739;
                    } else {
                        if (input[3] > 0.9550000000000001) {
                            var5 = 0.005823445245738464;
                        } else {
                            var5 = 0.022133988920533726;
                        }
                    }
                }
            } else {
                if (input[11] > 3.5000000000000004) {
                    var5 = -0.011299726477474372;
                } else {
                    var5 = 0.009905213082974347;
                }
            }
        }
    } else {
        if (input[14] <= -1.4999999999999998) {
            var5 = 0.0011980734410003309;
        } else {
            if (input[13] > 0.41000000000000014) {
                var5 = -0.02635918738505363;
            } else {
                if (input[3] > 0.21500000000000002) {
                    var5 = -0.012875740005875703;
                } else {
                    var5 = -0.023250894002223854;
                }
            }
        }
    }
    var var6;
    if (input[3] > 0.6650000000000001) {
        if (input[0] > 0.7250000000000001) {
            if (input[3] > 1.0450000000000002) {
                if (input[2] > 1.135) {
                    var6 = -0.002935984346825458;
                } else {
                    var6 = 0.02404118734003882;
                }
            } else {
                if (input[11] > 3.5000000000000004) {
                    var6 = -0.017617929569120474;
                } else {
                    var6 = 0.000313772042437187;
                }
            }
        } else {
            if (input[2] > 0.16500000000000004) {
                var6 = 0.024237000885395748;
            } else {
                var6 = 0.03900238868002121;
            }
        }
    } else {
        if (input[2] > 0.7050000000000001) {
            var6 = -0.025061242338632713;
        } else {
            if (input[3] > 0.26500000000000007) {
                if (input[7] > 2.5000000000000004) {
                    var6 = 0.017938868697071127;
                } else {
                    if (input[2] > 0.2750000000000001) {
                        var6 = -0.006798448024808344;
                    } else {
                        if (input[4] > 11.500000000000002) {
                            var6 = 0.023002236045479216;
                        } else {
                            var6 = 0.0005110177256848357;
                        }
                    }
                }
            } else {
                if (input[6] > 2.5000000000000004) {
                    var6 = -0.026669295723638548;
                } else {
                    if (input[7] > 0.000000000000000000000000000000000010000000180025095) {
                        if (input[2] > 0.21500000000000002) {
                            var6 = -0.014076645584796727;
                        } else {
                            var6 = 0.0028258740170081435;
                        }
                    } else {
                        var6 = -0.02321736034942575;
                    }
                }
            }
        }
    }
    var var7;
    if (input[13] <= -0.13999999999999993) {
        if (input[13] <= -1.265) {
            var7 = 0.04169677286324904;
        } else {
            if (input[6] > 2.5000000000000004) {
                var7 = 0.0028109591731752944;
            } else {
                if (input[5] > 15.500000000000002) {
                    if (input[7] > 2.5000000000000004) {
                        if (input[13] <= -0.7849999999999998) {
                            var7 = 0.011146552708307833;
                        } else {
                            if (input[1] > 1.405) {
                                var7 = 0.04015378357818003;
                            } else {
                                var7 = 0.017694948987164998;
                            }
                        }
                    } else {
                        var7 = -0.0012030215090462046;
                    }
                } else {
                    if (input[1] > 0.5050000000000001) {
                        var7 = 0.027354309987917887;
                    } else {
                        var7 = 0.009062944289130744;
                    }
                }
            }
        }
    } else {
        if (input[13] > 0.5650000000000002) {
            var7 = -0.02719467776454094;
        } else {
            if (input[7] > 2.5000000000000004) {
                if (input[1] > 0.5950000000000001) {
                    if (input[1] > 1.0950000000000004) {
                        var7 = -0.005654535205407337;
                    } else {
                        var7 = 0.012013684733089487;
                    }
                } else {
                    var7 = -0.015815132678116572;
                }
            } else {
                if (input[13] > 0.07000000000000003) {
                    var7 = -0.018781292515731;
                } else {
                    if (input[7] > 0.000000000000000000000000000000000010000000180025095) {
                        var7 = -0.0037244893091329077;
                    } else {
                        var7 = -0.01934222534960022;
                    }
                }
            }
        }
    }
    var var8;
    if (input[13] <= -0.13999999999999993) {
        if (input[13] <= -1.265) {
            var8 = 0.040182698709855;
        } else {
            if (input[6] > 2.5000000000000004) {
                var8 = 0.002794805321336797;
            } else {
                if (input[11] > 2.5000000000000004) {
                    if (input[14] <= -0.000000000000000000000000000000000010000000180025095) {
                        if (input[11] > 5.500000000000001) {
                            var8 = 0.0068777341303244985;
                        } else {
                            if (input[14] <= -1.4999999999999998) {
                                var8 = 0.028285186709065983;
                            } else {
                                var8 = 0.014718637094617933;
                            }
                        }
                    } else {
                        if (input[1] > 0.9050000000000001) {
                            var8 = 0.015067609432809324;
                        } else {
                            var8 = -0.008890340934397561;
                        }
                    }
                } else {
                    if (input[13] <= -0.6149999999999999) {
                        var8 = 0.03974242011361629;
                    } else {
                        var8 = 0.02429010835426564;
                    }
                }
            }
        }
    } else {
        if (input[13] > 0.5650000000000002) {
            var8 = -0.02678230338614413;
        } else {
            if (input[14] <= -0.000000000000000000000000000000000010000000180025095) {
                var8 = -0.0013655077041679895;
            } else {
                if (input[3] > 0.14500000000000005) {
                    if (input[0] > 1.3650000000000004) {
                        var8 = -0.024772665728650483;
                    } else {
                        if (input[3] > 0.6250000000000001) {
                            var8 = 0.0032751978883975635;
                        } else {
                            var8 = -0.01040567487376213;
                        }
                    }
                } else {
                    var8 = -0.022424927573654;
                }
            }
        }
    }
    var var9;
    if (input[3] > 0.5050000000000001) {
        if (input[0] > 0.6050000000000001) {
            if (input[3] > 0.8950000000000001) {
                if (input[2] > 0.35500000000000004) {
                    if (input[3] > 1.8550000000000002) {
                        var9 = 0.02529446243427094;
                    } else {
                        var9 = 0.005355342653173142;
                    }
                } else {
                    var9 = 0.03072846058499484;
                }
            } else {
                if (input[2] > 0.9350000000000002) {
                    var9 = -0.019151672717175543;
                } else {
                    var9 = 0.0015352729942056434;
                }
            }
        } else {
            if (input[3] > 0.9250000000000002) {
                var9 = 0.035157052341366235;
            } else {
                if (input[11] > 4.500000000000001) {
                    var9 = 0.004595664667507929;
                } else {
                    var9 = 0.02333003138380674;
                }
            }
        }
    } else {
        if (input[2] > 0.26500000000000007) {
            if (input[2] > 0.7050000000000001) {
                var9 = -0.025813532918652213;
            } else {
                if (input[3] > 0.26500000000000007) {
                    var9 = -0.002382350472075096;
                } else {
                    var9 = -0.020841944642978377;
                }
            }
        } else {
            if (input[3] > 0.15500000000000003) {
                if (input[10] > 17.500000000000004) {
                    var9 = 0.023039350533002653;
                } else {
                    if (input[10] > 12.500000000000002) {
                        var9 = -0.01491211191639092;
                    } else {
                        var9 = 0.012289416945605118;
                    }
                }
            } else {
                var9 = -0.01912656945322942;
            }
        }
    }
    var var10;
    if (input[14] <= -0.000000000000000000000000000000000010000000180025095) {
        if (input[3] > 0.9350000000000002) {
            if (input[0] > 0.6050000000000001) {
                if (input[11] > 4.500000000000001) {
                    var10 = 0.006219304932407578;
                } else {
                    var10 = 0.024294647834193876;
                }
            } else {
                var10 = 0.03430038161973168;
            }
        } else {
            if (input[14] <= -1.4999999999999998) {
                if (input[12] <= -0.5749999999999997) {
                    var10 = 0.022895953669595383;
                } else {
                    var10 = 0.008447265189892096;
                }
            } else {
                if (input[0] > 0.32500000000000007) {
                    if (input[8] > 8.500000000000002) {
                        var10 = 0.009571953681230615;
                    } else {
                        var10 = -0.011196785126764856;
                    }
                } else {
                    var10 = 0.014009340059681541;
                }
            }
        }
    } else {
        if (input[3] > 0.47500000000000003) {
            if (input[0] > 0.5950000000000001) {
                if (input[14] > 2.5000000000000004) {
                    var10 = -0.020384921865375046;
                } else {
                    var10 = -0.0018277524703141019;
                }
            } else {
                var10 = 0.017512369592280995;
            }
        } else {
            if (input[3] > 0.14500000000000005) {
                if (input[0] > 1.175) {
                    var10 = -0.02476759753977448;
                } else {
                    if (input[11] > 2.5000000000000004) {
                        var10 = -0.014203087003601709;
                    } else {
                        var10 = -0.0006680841734886245;
                    }
                }
            } else {
                var10 = -0.0266061848893649;
            }
        }
    }
    var var11;
    if (input[13] <= -0.014999999999999956) {
        if (input[13] <= -0.6349999999999998) {
            if (input[2] > 0.35500000000000004) {
                if (input[3] > 1.8700000000000003) {
                    var11 = 0.030131769654790908;
                } else {
                    var11 = 0.00808714293339263;
                }
            } else {
                var11 = 0.030773084056312957;
            }
        } else {
            if (input[7] > 2.5000000000000004) {
                if (input[0] > 0.36500000000000005) {
                    var11 = 0.011241773201064028;
                } else {
                    var11 = 0.030185152612255402;
                }
            } else {
                if (input[14] > 1.5000000000000002) {
                    var11 = -0.012239097253366037;
                } else {
                    if (input[5] > 8.500000000000002) {
                        if (input[13] <= -0.4449999999999999) {
                            var11 = 0.01737077753379938;
                        } else {
                            var11 = 0.00046295554912371755;
                        }
                    } else {
                        var11 = 0.017316282393622023;
                    }
                }
            }
        }
    } else {
        if (input[14] > 0.000000000000000000000000000000000010000000180025095) {
            var11 = -0.022298856246476043;
        } else {
            if (input[13] > 0.6050000000000002) {
                var11 = -0.026584843911822746;
            } else {
                if (input[2] > 0.5650000000000001) {
                    if (input[0] > 1.0650000000000002) {
                        var11 = -0.0046901070093786435;
                    } else {
                        var11 = 0.011856750253010966;
                    }
                } else {
                    if (input[4] > 12.500000000000002) {
                        var11 = -0.001553870623162435;
                    } else {
                        var11 = -0.02024411760538241;
                    }
                }
            }
        }
    }
    var var12;
    if (input[13] <= -0.12999999999999995) {
        if (input[13] <= -0.8549999999999998) {
            var12 = 0.03215993668597502;
        } else {
            if (input[12] > 0.2600000000000001) {
                var12 = -0.00033739642177736646;
            } else {
                if (input[13] <= -0.18499999999999994) {
                    if (input[13] <= -0.415) {
                        var12 = 0.017073261952040217;
                    } else {
                        if (input[1] > 0.7850000000000001) {
                            if (input[1] > 1.2850000000000004) {
                                var12 = 0.013791582530111379;
                            } else {
                                var12 = -0.011612064290337445;
                            }
                        } else {
                            var12 = 0.01355618694683901;
                        }
                    }
                } else {
                    var12 = 0.028267277435579358;
                }
            }
        }
    } else {
        if (input[13] > 0.46500000000000014) {
            if (input[3] > 0.49500000000000005) {
                var12 = -0.014844480248743162;
            } else {
                var12 = -0.025603972765344485;
            }
        } else {
            if (input[3] > 0.14500000000000005) {
                if (input[13] > 0.01499999999999996) {
                    if (input[4] > 14.500000000000002) {
                        if (input[13] > 0.2950000000000001) {
                            var12 = -0.014238458018979598;
                        } else {
                            var12 = 0.0018599796937544886;
                        }
                    } else {
                        var12 = -0.012742827736987157;
                    }
                } else {
                    if (input[12] <= -0.17499999999999996) {
                        var12 = -0.007223061062647587;
                    } else {
                        var12 = 0.006673505101153218;
                    }
                }
            } else {
                var12 = -0.019469728412485805;
            }
        }
    }
    var var13;
    if (input[13] <= -0.12999999999999995) {
        if (input[13] <= -0.8549999999999998) {
            var13 = 0.031071065018619178;
        } else {
            if (input[14] <= -0.000000000000000000000000000000000010000000180025095) {
                if (input[0] > 0.22500000000000003) {
                    if (input[0] > 1.0450000000000002) {
                        var13 = 0.030714735768763234;
                    } else {
                        if (input[0] > 0.7050000000000001) {
                            var13 = 0.0005614840986183056;
                        } else {
                            var13 = 0.01621241214946326;
                        }
                    }
                } else {
                    var13 = 0.02804003522314134;
                }
            } else {
                var13 = 0.0023871721858258078;
            }
        }
    } else {
        if (input[14] > 0.000000000000000000000000000000000010000000180025095) {
            if (input[13] > 0.12000000000000005) {
                if (input[1] > 1.0550000000000004) {
                    var13 = -0.012993551831616025;
                } else {
                    var13 = -0.024659176323075765;
                }
            } else {
                if (input[0] > 0.5650000000000001) {
                    var13 = 0.0;
                } else {
                    var13 = -0.021998798624064907;
                }
            }
        } else {
            if (input[14] <= -1.4999999999999998) {
                if (input[10] > 18.500000000000004) {
                    var13 = 0.016988769554046837;
                } else {
                    var13 = -0.009174145010708585;
                }
            } else {
                if (input[8] > 11.500000000000002) {
                    var13 = 0.005565931344767163;
                } else {
                    if (input[13] > 0.039999999999999994) {
                        var13 = -0.01599313597210223;
                    } else {
                        var13 = -0.004191491133581953;
                    }
                }
            }
        }
    }
    var var14;
    if (input[13] <= -0.12999999999999995) {
        if (input[13] <= -0.8549999999999998) {
            var14 = 0.03016290902744538;
        } else {
            if (input[14] <= -0.000000000000000000000000000000000010000000180025095) {
                if (input[11] > 4.500000000000001) {
                    var14 = 0.004441437576099106;
                } else {
                    var14 = 0.021798705971236867;
                }
            } else {
                var14 = 0.0022579566825326833;
            }
        }
    } else {
        if (input[14] > 0.000000000000000000000000000000000010000000180025095) {
            if (input[13] > 0.12000000000000005) {
                var14 = -0.022983635575108644;
            } else {
                if (input[3] > 0.21500000000000002) {
                    var14 = -0.0003266545495882872;
                } else {
                    var14 = -0.02277594728256841;
                }
            }
        } else {
            if (input[14] <= -1.4999999999999998) {
                if (input[8] > 7.500000000000001) {
                    var14 = 0.01628897449949025;
                } else {
                    var14 = -0.004469120861988561;
                }
            } else {
                if (input[5] > 16.500000000000004) {
                    var14 = -0.024113949769149608;
                } else {
                    if (input[5] > 13.500000000000002) {
                        var14 = 0.005515001222336485;
                    } else {
                        if (input[8] > 10.500000000000002) {
                            var14 = 0.002916595827811889;
                        } else {
                            if (input[3] > 0.09500000000000001) {
                                if (input[11] > 1.5000000000000002) {
                                    var14 = -0.016980034325774905;
                                } else {
                                    var14 = 0.0029671959493110553;
                                }
                            } else {
                                var14 = -0.03077704010024126;
                            }
                        }
                    }
                }
            }
        }
    }
    var var15;
    if (input[14] <= -0.000000000000000000000000000000000010000000180025095) {
        if (input[3] > 0.6950000000000001) {
            if (input[0] > 0.43500000000000005) {
                if (input[3] > 1.2450000000000003) {
                    var15 = 0.021274915268719927;
                } else {
                    if (input[11] > 4.500000000000001) {
                        var15 = -0.009984497987396701;
                    } else {
                        var15 = 0.012971559924088884;
                    }
                }
            } else {
                var15 = 0.02837747421703765;
            }
        } else {
            if (input[2] > 0.115) {
                if (input[1] > 0.8850000000000001) {
                    var15 = -0.015708550255893128;
                } else {
                    if (input[4] > 11.500000000000002) {
                        var15 = 0.009938776391002192;
                    } else {
                        var15 = -0.011267332759950784;
                    }
                }
            } else {
                var15 = 0.019723727273293946;
            }
        }
    } else {
        if (input[3] > 0.48500000000000004) {
            if (input[2] > 0.45500000000000007) {
                if (input[0] > 1.2550000000000001) {
                    var15 = -0.017203040535929286;
                } else {
                    var15 = -0.0009630999450832065;
                }
            } else {
                var15 = 0.015961687506501846;
            }
        } else {
            if (input[2] > 0.7250000000000001) {
                var15 = -0.024880004751344036;
            } else {
                if (input[3] > 0.14500000000000005) {
                    if (input[2] > 0.20500000000000004) {
                        var15 = -0.010242625343131768;
                    } else {
                        var15 = 0.005149036671270383;
                    }
                } else {
                    var15 = -0.02147517471805981;
                }
            }
        }
    }
    var var16;
    if (input[13] <= -0.075) {
        if (input[13] <= -0.5749999999999998) {
            if (input[0] > 0.6050000000000001) {
                if (input[0] > 1.0150000000000003) {
                    var16 = 0.025002369498045116;
                } else {
                    var16 = 0.006426943420973424;
                }
            } else {
                var16 = 0.0263769892544361;
            }
        } else {
            if (input[7] > 2.5000000000000004) {
                if (input[0] > 0.3950000000000001) {
                    if (input[11] > 3.5000000000000004) {
                        var16 = -0.00010454997345147635;
                    } else {
                        var16 = 0.01704365714391249;
                    }
                } else {
                    var16 = 0.02795765641453619;
                }
            } else {
                if (input[10] > 23.500000000000004) {
                    if (input[0] > 0.8450000000000001) {
                        var16 = 0.0012436750145149277;
                    } else {
                        var16 = 0.020334279620536518;
                    }
                } else {
                    if (input[11] > 2.5000000000000004) {
                        var16 = -0.01187255604147665;
                    } else {
                        var16 = 0.006936176177423106;
                    }
                }
            }
        }
    } else {
        if (input[13] > 0.1300000000000001) {
            if (input[13] > 0.6450000000000001) {
                var16 = -0.024216779904705533;
            } else {
                var16 = -0.016007855373770637;
            }
        } else {
            if (input[10] > 23.500000000000004) {
                if (input[11] > 2.5000000000000004) {
                    var16 = -0.006249516700866827;
                } else {
                    var16 = 0.0111639969303919;
                }
            } else {
                var16 = -0.011608829604545628;
            }
        }
    }
    var var17;
    if (input[13] <= -0.075) {
        if (input[13] <= -0.5749999999999998) {
            if (input[13] <= -1.265) {
                var17 = 0.03005460479765788;
            } else {
                if (input[11] > 4.500000000000001) {
                    var17 = 0.008178310453570746;
                } else {
                    if (input[2] > 0.34500000000000003) {
                        var17 = 0.008278556684806655;
                    } else {
                        var17 = 0.028175062934554275;
                    }
                }
            }
        } else {
            if (input[7] > 2.5000000000000004) {
                if (input[11] > 3.5000000000000004) {
                    if (input[8] > 7.500000000000001) {
                        var17 = -0.006904567349199668;
                    } else {
                        var17 = 0.015515719576185305;
                    }
                } else {
                    var17 = 0.019437606304660078;
                }
            } else {
                if (input[5] > 16.500000000000004) {
                    var17 = -0.012055590563492176;
                } else {
                    if (input[11] > 3.5000000000000004) {
                        var17 = -0.003715466314995022;
                    } else {
                        if (input[12] > 0.24000000000000007) {
                            var17 = -0.0039402719765929154;
                        } else {
                            var17 = 0.012945375379186297;
                        }
                    }
                }
            }
        }
    } else {
        if (input[13] > 0.1300000000000001) {
            if (input[13] > 0.6450000000000001) {
                var17 = -0.02386516662308427;
            } else {
                var17 = -0.01565760642699787;
            }
        } else {
            if (input[8] > 11.500000000000002) {
                var17 = 0.007878544228047568;
            } else {
                var17 = -0.009310259284406808;
            }
        }
    }
    var var18;
    if (input[14] <= -0.000000000000000000000000000000000010000000180025095) {
        if (input[14] <= -1.4999999999999998) {
            if (input[0] > 0.7350000000000001) {
                if (input[1] > 1.2850000000000004) {
                    var18 = 0.014863385747192271;
                } else {
                    var18 = -0.002361999822832393;
                }
            } else {
                if (input[1] > 0.6450000000000001) {
                    var18 = 0.02512067031889701;
                } else {
                    var18 = 0.009344203952110027;
                }
            }
        } else {
            if (input[8] > 8.500000000000002) {
                var18 = 0.014508393057346303;
            } else {
                if (input[5] > 15.500000000000002) {
                    var18 = -0.011686311962344353;
                } else {
                    var18 = 0.004817896894744604;
                }
            }
        }
    } else {
        if (input[2] > 0.9250000000000002) {
            var18 = -0.019440081618643735;
        } else {
            if (input[1] > 0.35500000000000004) {
                if (input[14] > 1.5000000000000002) {
                    var18 = -0.010915607756936192;
                } else {
                    if (input[10] > 22.500000000000004) {
                        if (input[2] > 0.34500000000000003) {
                            var18 = 0.0027964168961722453;
                        } else {
                            var18 = 0.017212794487459163;
                        }
                    } else {
                        if (input[4] > 9.500000000000002) {
                            var18 = -0.008048958779445342;
                        } else {
                            if (input[4] > 7.500000000000001) {
                                var18 = 0.015677172474777366;
                            } else {
                                var18 = -0.00349201872565708;
                            }
                        }
                    }
                }
            } else {
                var18 = -0.015168624462975618;
            }
        }
    }
    var var19;
    if (input[12] <= -0.07000000000000002) {
        if (input[12] <= -1.285) {
            var19 = 0.02372073890546972;
        } else {
            if (input[2] > 0.085) {
                if (input[2] > 0.7150000000000001) {
                    if (input[12] <= -0.48) {
                        var19 = 0.006829219936594081;
                    } else {
                        var19 = -0.017246999706278857;
                    }
                } else {
                    if (input[0] > 0.3950000000000001) {
                        var19 = 0.010100556212427723;
                    } else {
                        if (input[8] > 7.500000000000001) {
                            var19 = 0.016149953940921814;
                        } else {
                            var19 = -0.003053424223294188;
                        }
                    }
                }
            } else {
                if (input[4] > 8.500000000000002) {
                    var19 = 0.027784210284198575;
                } else {
                    var19 = 0.010069470991856755;
                }
            }
        }
    } else {
        if (input[12] > 0.5850000000000002) {
            if (input[2] > 0.9250000000000002) {
                var19 = -0.022307859568346668;
            } else {
                if (input[8] > 9.500000000000002) {
                    var19 = -0.006298200431620893;
                } else {
                    var19 = -0.023501768220030292;
                }
            }
        } else {
            if (input[0] > 0.7550000000000001) {
                var19 = 0.0022816829135361514;
            } else {
                if (input[8] > 10.500000000000002) {
                    var19 = 0.006704358322159168;
                } else {
                    if (input[2] > 0.15500000000000003) {
                        var19 = -0.01695657716145965;
                    } else {
                        var19 = 0.00014551401003117347;
                    }
                }
            }
        }
    }
    var var20;
    if (input[14] <= -0.000000000000000000000000000000000010000000180025095) {
        if (input[3] > 0.6950000000000001) {
            if (input[2] > 0.7550000000000001) {
                if (input[3] > 1.3350000000000002) {
                    var20 = 0.017618118183448113;
                } else {
                    var20 = -0.0012055874734899785;
                }
            } else {
                if (input[2] > 0.12500000000000003) {
                    var20 = 0.019195681584246168;
                } else {
                    var20 = 0.02931499134328722;
                }
            }
        } else {
            if (input[2] > 0.26500000000000007) {
                if (input[14] <= -1.4999999999999998) {
                    var20 = 0.0065032948737106236;
                } else {
                    var20 = -0.013301033117875066;
                }
            } else {
                if (input[4] > 7.500000000000001) {
                    var20 = 0.01579841168019569;
                } else {
                    var20 = -0.002008286291726377;
                }
            }
        }
    } else {
        if (input[3] > 0.48500000000000004) {
            if (input[2] > 1.0150000000000003) {
                var20 = -0.014344434361867397;
            } else {
                if (input[2] > 0.32500000000000007) {
                    if (input[6] > 3.5000000000000004) {
                        var20 = 0.012738343825140028;
                    } else {
                        var20 = 0.0005520797440754091;
                    }
                } else {
                    var20 = 0.016634076107251983;
                }
            }
        } else {
            if (input[2] > 0.7250000000000001) {
                var20 = -0.022412438306185292;
            } else {
                if (input[3] > 0.015000000000000001) {
                    var20 = -0.007958968381434036;
                } else {
                    var20 = -0.02812059560649996;
                }
            }
        }
    }
    var var21;
    if (input[13] <= -0.12999999999999995) {
        if (input[14] <= -2.4999999999999996) {
            if (input[11] > 6.500000000000001) {
                var21 = 0.003208328861195416;
            } else {
                var21 = 0.025965599691376604;
            }
        } else {
            if (input[13] <= -0.8549999999999998) {
                var21 = 0.019830054070939174;
            } else {
                if (input[11] > 1.5000000000000002) {
                    if (input[12] <= -0.5349999999999998) {
                        var21 = 0.011958274438605618;
                    } else {
                        var21 = 0.0014832483967849744;
                    }
                } else {
                    var21 = 0.019051135732019955;
                }
            }
        }
    } else {
        if (input[14] > 1.5000000000000002) {
            var21 = -0.0189676446195136;
        } else {
            if (input[13] > 0.01499999999999996) {
                if (input[8] > 8.500000000000002) {
                    if (input[12] <= -0.019999999999999973) {
                        var21 = 0.00792934867760371;
                    } else {
                        if (input[12] > 0.42500000000000004) {
                            if (input[13] > 0.34500000000000003) {
                                var21 = -0.010634354761207825;
                            } else {
                                var21 = 0.016386960795430783;
                            }
                        } else {
                            var21 = -0.01867417223061497;
                        }
                    }
                } else {
                    var21 = -0.013785304087927183;
                }
            } else {
                if (input[11] > 1.5000000000000002) {
                    if (input[12] > 0.05000000000000002) {
                        var21 = 0.011031820817042251;
                    } else {
                        var21 = -0.009785926462635158;
                    }
                } else {
                    var21 = 0.014982004648054992;
                }
            }
        }
    }
    var var22;
    if (input[13] <= -0.12999999999999995) {
        if (input[1] > 1.235) {
            if (input[13] <= -1.265) {
                var22 = 0.02925992598784921;
            } else {
                if (input[11] > 4.500000000000001) {
                    var22 = 0.0066823962906838825;
                } else {
                    var22 = 0.019486457271225086;
                }
            }
        } else {
            if (input[9] > 9.500000000000002) {
                if (input[13] <= -0.4749999999999999) {
                    var22 = 0.0067110937829810684;
                } else {
                    var22 = -0.00862539662421272;
                }
            } else {
                if (input[7] > 2.5000000000000004) {
                    var22 = 0.021712560155968893;
                } else {
                    var22 = 0.007497338775426918;
                }
            }
        }
    } else {
        if (input[13] > 0.20000000000000007) {
            if (input[1] > 0.7250000000000001) {
                if (input[11] > 3.5000000000000004) {
                    var22 = -0.01874856793853871;
                } else {
                    var22 = -0.004482555124482169;
                }
            } else {
                var22 = -0.019724001439252115;
            }
        } else {
            if (input[8] > 11.500000000000002) {
                var22 = 0.006790616115867415;
            } else {
                if (input[11] > 1.5000000000000002) {
                    if (input[7] > 3.5000000000000004) {
                        var22 = 0.0033961718086215112;
                    } else {
                        var22 = -0.012015084801887062;
                    }
                } else {
                    if (input[13] > 0.01499999999999996) {
                        var22 = -0.007694501402941036;
                    } else {
                        var22 = 0.013123614297064599;
                    }
                }
            }
        }
    }
    var var23;
    if (input[13] <= -0.12999999999999995) {
        if (input[1] > 1.235) {
            if (input[13] <= -1.265) {
                var23 = 0.028590503115471403;
            } else {
                if (input[2] > 0.12500000000000003) {
                    if (input[2] > 0.6650000000000001) {
                        var23 = 0.020756837664700153;
                    } else {
                        var23 = 0.006854537033340657;
                    }
                } else {
                    var23 = 0.02822856918176321;
                }
            }
        } else {
            if (input[0] > 0.6350000000000001) {
                if (input[9] > 9.500000000000002) {
                    var23 = -0.016920630584066038;
                } else {
                    if (input[1] > 0.8450000000000001) {
                        var23 = -0.006877271348076088;
                    } else {
                        var23 = 0.01415285784394213;
                    }
                }
            } else {
                var23 = 0.011963150301588682;
            }
        }
    } else {
        if (input[12] > 0.9250000000000003) {
            var23 = -0.02127422485885666;
        } else {
            if (input[10] > 23.500000000000004) {
                if (input[1] > 0.5150000000000001) {
                    if (input[2] > 0.7550000000000001) {
                        var23 = -0.0035710322842108307;
                    } else {
                        var23 = 0.010542973893976326;
                    }
                } else {
                    if (input[13] > 0.11000000000000004) {
                        var23 = -0.017627296495413145;
                    } else {
                        var23 = -0.0014873322337945992;
                    }
                }
            } else {
                if (input[13] > 0.5950000000000002) {
                    var23 = -0.02182012265848787;
                } else {
                    var23 = -0.009258791128926013;
                }
            }
        }
    }
    var var24;
    if (input[13] <= -0.000000000000000000000000000000000010000000180025095) {
        if (input[13] <= -0.4749999999999999) {
            if (input[6] > 1.5000000000000002) {
                var24 = 0.006836802168608241;
            } else {
                if (input[3] > 1.425) {
                    var24 = 0.029606406635503884;
                } else {
                    if (input[2] > 0.15500000000000003) {
                        var24 = 0.007659468976775525;
                    } else {
                        var24 = 0.02233417975689527;
                    }
                }
            }
        } else {
            if (input[3] > 1.1250000000000002) {
                var24 = 0.01526335085873402;
            } else {
                var24 = 0.0008097995272950225;
            }
        }
    } else {
        if (input[13] > 0.5850000000000002) {
            var24 = -0.01973119388939223;
        } else {
            if (input[3] > 0.06500000000000002) {
                if (input[1] > 0.17500000000000002) {
                    if (input[9] > 7.500000000000001) {
                        if (input[2] > 0.45500000000000007) {
                            if (input[8] > 6.500000000000001) {
                                if (input[7] > 2.5000000000000004) {
                                    var24 = -0.002011110689030222;
                                } else {
                                    var24 = -0.019570820135078687;
                                }
                            } else {
                                var24 = 0.004488926652232267;
                            }
                        } else {
                            var24 = -0.025700425362969244;
                        }
                    } else {
                        if (input[13] > 0.22000000000000008) {
                            var24 = -0.007879746228278466;
                        } else {
                            var24 = 0.008054090033313158;
                        }
                    }
                } else {
                    var24 = -0.02337354443140196;
                }
            } else {
                var24 = -0.020795315577284184;
            }
        }
    }
    var var25;
    if (input[13] <= -0.000000000000000000000000000000000010000000180025095) {
        if (input[13] <= -0.4749999999999999) {
            if (input[6] > 2.5000000000000004) {
                var25 = 0.0;
            } else {
                if (input[8] > 9.500000000000002) {
                    var25 = 0.006858059574557801;
                } else {
                    if (input[1] > 1.385) {
                        if (input[5] > 18.500000000000004) {
                            var25 = 0.015481329807133331;
                        } else {
                            var25 = 0.028509866567315946;
                        }
                    } else {
                        var25 = 0.013688234208208146;
                    }
                }
            }
        } else {
            if (input[1] > 0.23500000000000001) {
                if (input[0] > 1.0550000000000004) {
                    var25 = 0.009117711106240668;
                } else {
                    var25 = -0.0010100336774711775;
                }
            } else {
                var25 = 0.014426849766304015;
            }
        }
    } else {
        if (input[12] > 0.8650000000000002) {
            var25 = -0.021259567408267593;
        } else {
            if (input[1] > 0.17500000000000002) {
                if (input[13] > 0.6050000000000002) {
                    if (input[0] > 0.9850000000000001) {
                        var25 = -0.010424347603502486;
                    } else {
                        var25 = -0.027044756172285897;
                    }
                } else {
                    if (input[12] > 0.2500000000000001) {
                        if (input[0] > 0.7950000000000002) {
                            var25 = -0.0026953180054548557;
                        } else {
                            var25 = 0.0191964962154407;
                        }
                    } else {
                        var25 = -0.010613694290390854;
                    }
                }
            } else {
                var25 = -0.02267980571226761;
            }
        }
    }
    var var26;
    if (input[12] > 0.11000000000000004) {
        if (input[7] > 2.5000000000000004) {
            var26 = 0.002079731949445363;
        } else {
            if (input[0] > 1.3650000000000004) {
                var26 = -0.02213788039056376;
            } else {
                if (input[12] > 0.2500000000000001) {
                    if (input[4] > 14.500000000000002) {
                        var26 = 0.0019958745904496214;
                    } else {
                        var26 = -0.009878233931619526;
                    }
                } else {
                    var26 = -0.01855403091817943;
                }
            }
        }
    } else {
        if (input[12] <= -1.285) {
            if (input[11] > 5.500000000000001) {
                var26 = 0.008232615209607436;
            } else {
                var26 = 0.02673566993592737;
            }
        } else {
            if (input[2] > 0.025000000000000005) {
                if (input[6] > 0.000000000000000000000000000000000010000000180025095) {
                    if (input[12] > 0.03499999999999993) {
                        var26 = 0.012474111305610484;
                    } else {
                        if (input[11] > 4.500000000000001) {
                            var26 = -0.009647152699096943;
                        } else {
                            if (input[0] > 0.9950000000000001) {
                                var26 = 0.008438243437106639;
                            } else {
                                var26 = -0.0025130917403343514;
                            }
                        }
                    }
                } else {
                    if (input[7] > 1.5000000000000002) {
                        if (input[4] > 9.500000000000002) {
                            var26 = 0.0287206977669588;
                        } else {
                            var26 = 0.004708333347019528;
                        }
                    } else {
                        var26 = -0.004049619115569436;
                    }
                }
            } else {
                var26 = 0.02144663230810887;
            }
        }
    }
    var var27;
    if (input[13] > 0.000000000000000000000000000000000010000000180025095) {
        if (input[13] > 0.7950000000000002) {
            var27 = -0.02263240300179403;
        } else {
            if (input[11] > 3.5000000000000004) {
                var27 = -0.020044431593818492;
            } else {
                if (input[3] > 0.26500000000000007) {
                    var27 = 0.001690783992651116;
                } else {
                    if (input[6] > 2.5000000000000004) {
                        var27 = -0.02272670163174893;
                    } else {
                        if (input[12] > 0.2500000000000001) {
                            if (input[13] > 0.2850000000000001) {
                                var27 = -0.009792033623103037;
                            } else {
                                var27 = 0.010297781151877664;
                            }
                        } else {
                            if (input[9] > 5.500000000000001) {
                                var27 = -0.007676359596073764;
                            } else {
                                var27 = -0.028647020901400578;
                            }
                        }
                    }
                }
            }
        }
    } else {
        if (input[12] <= -1.2549999999999997) {
            var27 = 0.023518671650154165;
        } else {
            if (input[11] > 1.5000000000000002) {
                if (input[13] <= -0.48499999999999993) {
                    var27 = 0.012154424080467687;
                } else {
                    if (input[3] > 1.0750000000000004) {
                        var27 = 0.020113825942894573;
                    } else {
                        if (input[13] <= -0.3599999999999999) {
                            if (input[13] <= -0.415) {
                                var27 = 0.002179576387698333;
                            } else {
                                var27 = -0.021625224376180533;
                            }
                        } else {
                            var27 = 0.003276459177038307;
                        }
                    }
                }
            } else {
                var27 = 0.020745157942692063;
            }
        }
    }
    var var28;
    if (input[13] > 0.000000000000000000000000000000000010000000180025095) {
        if (input[13] > 0.7950000000000002) {
            var28 = -0.022400651576907876;
        } else {
            if (input[11] > 3.5000000000000004) {
                var28 = -0.019746657948211684;
            } else {
                if (input[3] > 0.26500000000000007) {
                    var28 = 0.0017116644543717914;
                } else {
                    if (input[14] > 1.5000000000000002) {
                        var28 = -0.021148755633625227;
                    } else {
                        if (input[12] > 0.2500000000000001) {
                            if (input[1] > 0.21500000000000002) {
                                var28 = 0.006851708368250454;
                            } else {
                                var28 = -0.01541641233639337;
                            }
                        } else {
                            var28 = -0.01467101531169413;
                        }
                    }
                }
            }
        }
    } else {
        if (input[14] <= -1.4999999999999998) {
            if (input[11] > 6.500000000000001) {
                var28 = 0.001089383617032515;
            } else {
                if (input[10] > 29.500000000000004) {
                    var28 = 0.002339200407575376;
                } else {
                    var28 = 0.021806262838674564;
                }
            }
        } else {
            if (input[11] > 1.5000000000000002) {
                if (input[3] > 1.3050000000000004) {
                    var28 = 0.016311300922368394;
                } else {
                    if (input[10] > 16.500000000000004) {
                        if (input[14] > 1.5000000000000002) {
                            var28 = -0.007656840195518869;
                        } else {
                            var28 = 0.007177997221980052;
                        }
                    } else {
                        var28 = -0.007262772483945945;
                    }
                }
            } else {
                var28 = 0.017912425106005523;
            }
        }
    }
    var var29;
    if (input[13] > 0.000000000000000000000000000000000010000000180025095) {
        if (input[13] > 0.7950000000000002) {
            var29 = -0.02216495485332953;
        } else {
            if (input[11] > 3.5000000000000004) {
                var29 = -0.019451150070871528;
            } else {
                if (input[3] > 0.26500000000000007) {
                    if (input[0] > 1.2750000000000001) {
                        var29 = -0.006796503726949018;
                    } else {
                        var29 = 0.006361792959743832;
                    }
                } else {
                    var29 = -0.012318459902704958;
                }
            }
        }
    } else {
        if (input[14] <= -1.4999999999999998) {
            if (input[11] > 6.500000000000001) {
                var29 = 0.0008406292858721921;
            } else {
                if (input[10] > 29.500000000000004) {
                    var29 = 0.002168955852594445;
                } else {
                    var29 = 0.021251327248028102;
                }
            }
        } else {
            if (input[11] > 1.5000000000000002) {
                if (input[3] > 1.3050000000000004) {
                    var29 = 0.01588425843193795;
                } else {
                    if (input[10] > 16.500000000000004) {
                        if (input[0] > 0.49500000000000005) {
                            if (input[12] > 0.17500000000000004) {
                                var29 = 0.00900402447644891;
                            } else {
                                if (input[10] > 24.500000000000004) {
                                    var29 = -0.013626525860428437;
                                } else {
                                    var29 = 0.004196115549808725;
                                }
                            }
                        } else {
                            var29 = 0.013827087659216315;
                        }
                    } else {
                        var29 = -0.0071997328745591746;
                    }
                }
            } else {
                var29 = 0.017384935659339892;
            }
        }
    }
    var var30;
    if (input[14] <= -1.4999999999999998) {
        if (input[0] > 0.7150000000000001) {
            if (input[3] > 0.9850000000000001) {
                var30 = 0.015386771813615828;
            } else {
                var30 = -0.0049634159255863616;
            }
        } else {
            var30 = 0.017217807099256077;
        }
    } else {
        if (input[3] > 0.49500000000000005) {
            if (input[6] > 2.5000000000000004) {
                if (input[4] > 20.500000000000004) {
                    var30 = 0.011279099692707094;
                } else {
                    if (input[3] > 1.3050000000000004) {
                        var30 = 0.0035765555485636285;
                    } else {
                        var30 = -0.011065761252213079;
                    }
                }
            } else {
                var30 = 0.005605776444485615;
            }
        } else {
            if (input[14] > 1.5000000000000002) {
                if (input[3] > 0.34500000000000003) {
                    if (input[0] > 1.3450000000000004) {
                        var30 = -0.019156310310293485;
                    } else {
                        var30 = 0.00416688849391537;
                    }
                } else {
                    var30 = -0.02175266112296885;
                }
            } else {
                if (input[4] > 19.500000000000004) {
                    var30 = 0.009923784668047138;
                } else {
                    if (input[3] > 0.05500000000000001) {
                        if (input[9] > 7.500000000000001) {
                            if (input[4] > 14.500000000000002) {
                                var30 = -0.02544265403190708;
                            } else {
                                var30 = -0.0087243015311552;
                            }
                        } else {
                            var30 = -0.0021481761801684096;
                        }
                    } else {
                        var30 = -0.020247299285386943;
                    }
                }
            }
        }
    }
    var var31;
    if (input[14] <= -1.4999999999999998) {
        if (input[2] > 0.12500000000000003) {
            if (input[3] > 1.4950000000000003) {
                var31 = 0.019112378341015025;
            } else {
                var31 = 0.004665414780787282;
            }
        } else {
            var31 = 0.025566613186103652;
        }
    } else {
        if (input[3] > 0.49500000000000005) {
            if (input[2] > 1.5300000000000002) {
                var31 = -0.017260598129746865;
            } else {
                if (input[3] > 0.8550000000000001) {
                    var31 = 0.008476354425104844;
                } else {
                    if (input[3] > 0.7250000000000001) {
                        var31 = -0.014196778926831223;
                    } else {
                        if (input[14] > 0.000000000000000000000000000000000010000000180025095) {
                            var31 = -0.0073080116741988535;
                        } else {
                            var31 = 0.007896919584727439;
                        }
                    }
                }
            }
        } else {
            if (input[2] > 0.8350000000000001) {
                var31 = -0.021937898822896942;
            } else {
                if (input[3] > 0.05500000000000001) {
                    if (input[2] > 0.045000000000000005) {
                        if (input[7] > 2.5000000000000004) {
                            var31 = 0.0066571464922357835;
                        } else {
                            if (input[5] > 9.500000000000002) {
                                var31 = -0.01135463858743625;
                            } else {
                                if (input[7] > 0.000000000000000000000000000000000010000000180025095) {
                                    var31 = 0.005640468808720418;
                                } else {
                                    var31 = -0.012806344535713133;
                                }
                            }
                        }
                    } else {
                        var31 = 0.009713364018192727;
                    }
                } else {
                    var31 = -0.02004369307215287;
                }
            }
        }
    }
    var var32;
    if (input[13] > 0.039999999999999994) {
        if (input[13] > 0.8950000000000001) {
            var32 = -0.02274600580487488;
        } else {
            if (input[3] > 0.34500000000000003) {
                if (input[6] > 1.5000000000000002) {
                    if (input[4] > 12.500000000000002) {
                        var32 = -0.0009900815151118205;
                    } else {
                        var32 = -0.02045546090383798;
                    }
                } else {
                    var32 = 0.009303848399706235;
                }
            } else {
                var32 = -0.014328577398470736;
            }
        }
    } else {
        if (input[13] <= -1.265) {
            var32 = 0.025547332955342082;
        } else {
            if (input[2] > 0.03500000000000001) {
                if (input[2] > 0.8350000000000001) {
                    var32 = 0.015506408028327529;
                } else {
                    if (input[9] > 9.500000000000002) {
                        if (input[0] > 0.3350000000000001) {
                            var32 = -0.004648998143124982;
                        } else {
                            var32 = 0.009607098950087848;
                        }
                    } else {
                        if (input[13] <= -0.7149999999999999) {
                            var32 = 0.020712157835268082;
                        } else {
                            if (input[9] > 5.500000000000001) {
                                if (input[13] <= -0.13999999999999993) {
                                    if (input[3] > 0.6250000000000001) {
                                        var32 = 0.00506883687561987;
                                    } else {
                                        var32 = 0.02018525193337018;
                                    }
                                } else {
                                    var32 = -0.0007282916283107118;
                                }
                            } else {
                                var32 = -0.0029760922115608457;
                            }
                        }
                    }
                }
            } else {
                var32 = 0.017308713582832244;
            }
        }
    }
    var var33;
    if (input[13] <= -0.014999999999999956) {
        if (input[13] <= -1.265) {
            var33 = 0.020790148804076307;
        } else {
            if (input[11] > 5.500000000000001) {
                var33 = -0.005233480586719385;
            } else {
                if (input[13] <= -0.225) {
                    if (input[5] > 10.500000000000002) {
                        var33 = 0.013577671058947171;
                    } else {
                        if (input[11] > 2.5000000000000004) {
                            var33 = -0.0054429439133523005;
                        } else {
                            var33 = 0.009997813939480526;
                        }
                    }
                } else {
                    if (input[11] > 3.5000000000000004) {
                        var33 = -0.009216532556366473;
                    } else {
                        var33 = 0.005587065373737965;
                    }
                }
            }
        }
    } else {
        if (input[13] > 1.0650000000000002) {
            var33 = -0.02423914796633971;
        } else {
            if (input[11] > 3.5000000000000004) {
                var33 = -0.0186471207204856;
            } else {
                if (input[3] > 0.2850000000000001) {
                    if (input[5] > 11.500000000000002) {
                        if (input[8] > 9.500000000000002) {
                            var33 = 0.031048092858569926;
                        } else {
                            var33 = 0.00851322297797125;
                        }
                    } else {
                        var33 = -0.00410399490969015;
                    }
                } else {
                    if (input[3] > 0.06500000000000002) {
                        if (input[11] > 1.5000000000000002) {
                            var33 = -0.014794337978666616;
                        } else {
                            var33 = -0.0005991393271171155;
                        }
                    } else {
                        var33 = -0.02097819887560561;
                    }
                }
            }
        }
    }
    var var34;
    if (input[13] <= -0.014999999999999956) {
        if (input[13] <= -1.265) {
            var34 = 0.02039625976267989;
        } else {
            if (input[13] <= -0.225) {
                if (input[3] > 1.405) {
                    var34 = -0.0023218446429942195;
                } else {
                    if (input[1] > 1.195) {
                        var34 = 0.015067854326817514;
                    } else {
                        if (input[5] > 15.500000000000002) {
                            var34 = -0.0063791211129334046;
                        } else {
                            if (input[13] <= -0.3649999999999999) {
                                var34 = 0.004087158527822019;
                            } else {
                                var34 = 0.01695203076424962;
                            }
                        }
                    }
                }
            } else {
                var34 = 0.000704396518807268;
            }
        }
    } else {
        if (input[13] > 1.0650000000000002) {
            var34 = -0.024054492646315654;
        } else {
            if (input[3] > 0.14500000000000005) {
                if (input[0] > 1.0650000000000002) {
                    if (input[1] > 0.465) {
                        var34 = -0.006963659730369738;
                    } else {
                        var34 = -0.02416824325939717;
                    }
                } else {
                    if (input[0] > 0.9150000000000001) {
                        var34 = 0.014304066666471538;
                    } else {
                        if (input[9] > 8.500000000000002) {
                            var34 = -0.016317292329721053;
                        } else {
                            if (input[0] > 0.7150000000000001) {
                                var34 = -0.010173117358777635;
                            } else {
                                var34 = 0.009455331025368415;
                            }
                        }
                    }
                }
            } else {
                var34 = -0.016703013088531615;
            }
        }
    }
    var var35;
    if (input[14] <= -1.4999999999999998) {
        if (input[4] > 5.500000000000001) {
            if (input[0] > 0.22500000000000003) {
                var35 = 0.010611546926215486;
            } else {
                var35 = 0.026533555609195777;
            }
        } else {
            var35 = 0.0004810420138314903;
        }
    } else {
        if (input[3] > 0.29500000000000004) {
            if (input[0] > 1.2550000000000001) {
                if (input[5] > 11.500000000000002) {
                    if (input[3] > 0.5050000000000001) {
                        var35 = 0.004670319071936484;
                    } else {
                        var35 = -0.016497865656645485;
                    }
                } else {
                    var35 = -0.016494368364093473;
                }
            } else {
                if (input[5] > 16.500000000000004) {
                    var35 = -0.007264072627117792;
                } else {
                    if (input[8] > 6.500000000000001) {
                        if (input[3] > 0.43500000000000005) {
                            if (input[3] > 0.8550000000000001) {
                                var35 = 0.008696221000545144;
                            } else {
                                if (input[1] > 0.9250000000000002) {
                                    var35 = -0.022190204713508202;
                                } else {
                                    var35 = 0.0005471737366176824;
                                }
                            }
                        } else {
                            var35 = 0.012082890414157185;
                        }
                    } else {
                        var35 = 0.009371299187172558;
                    }
                }
            }
        } else {
            if (input[14] > 0.000000000000000000000000000000000010000000180025095) {
                var35 = -0.017925939645146827;
            } else {
                if (input[9] > 7.500000000000001) {
                    var35 = -0.01433712829918005;
                } else {
                    var35 = 0.0026907062130253996;
                }
            }
        }
    }
    var var36;
    if (input[3] > 0.6950000000000001) {
        if (input[0] > 0.7350000000000001) {
            if (input[3] > 1.2950000000000002) {
                var36 = 0.008322180378422007;
            } else {
                if (input[11] > 4.500000000000001) {
                    var36 = -0.01874416878361154;
                } else {
                    if (input[1] > 1.4350000000000003) {
                        var36 = -0.0109657625210718;
                    } else {
                        var36 = 0.004179317829256779;
                    }
                }
            }
        } else {
            if (input[11] > 4.500000000000001) {
                var36 = 0.007562357112373694;
            } else {
                if (input[2] > 0.21500000000000002) {
                    var36 = 0.014009269115796485;
                } else {
                    var36 = 0.027049787197783004;
                }
            }
        }
    } else {
        if (input[12] > 0.8450000000000002) {
            var36 = -0.019983296196318855;
        } else {
            if (input[3] > 0.21500000000000002) {
                if (input[2] > 0.26500000000000007) {
                    if (input[1] > 0.34500000000000003) {
                        var36 = -0.006751163269260728;
                    } else {
                        var36 = 0.011246416048190632;
                    }
                } else {
                    if (input[7] > 2.5000000000000004) {
                        var36 = 0.01387207119697579;
                    } else {
                        if (input[2] > 0.18500000000000003) {
                            var36 = 0.013485138456014664;
                        } else {
                            var36 = -0.004726710954797417;
                        }
                    }
                }
            } else {
                if (input[11] > 1.5000000000000002) {
                    var36 = -0.018174746510949368;
                } else {
                    var36 = -0.005600748562260773;
                }
            }
        }
    }
    var var37;
    if (input[13] <= -0.225) {
        if (input[13] <= -1.265) {
            var37 = 0.023330683104139046;
        } else {
            if (input[11] > 5.500000000000001) {
                if (input[3] > 1.1450000000000002) {
                    var37 = 0.003928987473650948;
                } else {
                    var37 = -0.015097151049949015;
                }
            } else {
                if (input[6] > 2.5000000000000004) {
                    if (input[12] <= -0.23500000000000001) {
                        var37 = -0.018535897009251973;
                    } else {
                        var37 = 0.0055516641783462314;
                    }
                } else {
                    var37 = 0.012510883100157338;
                }
            }
        }
    } else {
        if (input[14] > 0.000000000000000000000000000000000010000000180025095) {
            if (input[12] > 0.8650000000000002) {
                var37 = -0.021071292693079086;
            } else {
                if (input[12] <= -0.11999999999999993) {
                    var37 = -0.023833755983441566;
                } else {
                    if (input[3] > 0.21500000000000002) {
                        if (input[13] > 0.12000000000000005) {
                            var37 = -0.008739693529204975;
                        } else {
                            var37 = 0.00817670849500204;
                        }
                    } else {
                        var37 = -0.01815132340818164;
                    }
                }
            }
        } else {
            if (input[14] <= -2.4999999999999996) {
                var37 = 0.01894871893239091;
            } else {
                if (input[5] > 7.500000000000001) {
                    if (input[3] > 0.17500000000000002) {
                        var37 = -0.003924784537480129;
                    } else {
                        var37 = -0.01560201045006083;
                    }
                } else {
                    var37 = 0.007788629921832054;
                }
            }
        }
    }
    var var38;
    if (input[14] > 0.000000000000000000000000000000000010000000180025095) {
        if (input[12] > 0.9450000000000003) {
            var38 = -0.021158672057704074;
        } else {
            if (input[3] > 0.21500000000000002) {
                if (input[12] <= -0.20500000000000004) {
                    var38 = -0.01894091526147934;
                } else {
                    if (input[14] > 2.5000000000000004) {
                        var38 = -0.012322551118486217;
                    } else {
                        if (input[10] > 30.500000000000004) {
                            var38 = 0.015728657933284526;
                        } else {
                            if (input[5] > 14.500000000000002) {
                                var38 = 0.009321325180393704;
                            } else {
                                var38 = -0.009870082121756035;
                            }
                        }
                    }
                }
            } else {
                var38 = -0.01836489204222001;
            }
        }
    } else {
        if (input[3] > 0.6950000000000001) {
            if (input[6] > 1.5000000000000002) {
                var38 = 0.0028646940662069476;
            } else {
                if (input[11] > 5.500000000000001) {
                    var38 = 0.0;
                } else {
                    var38 = 0.02113262458001434;
                }
            }
        } else {
            if (input[14] <= -1.4999999999999998) {
                var38 = 0.005945203812974749;
            } else {
                if (input[5] > 16.500000000000004) {
                    var38 = -0.016452612999896032;
                } else {
                    if (input[9] > 4.500000000000001) {
                        if (input[9] > 6.500000000000001) {
                            var38 = -0.0007273196185850808;
                        } else {
                            var38 = -0.010166938773869812;
                        }
                    } else {
                        var38 = 0.007412040382345844;
                    }
                }
            }
        }
    }
    var var39;
    if (input[2] > 0.48500000000000004) {
        if (input[1] > 0.6350000000000001) {
            if (input[2] > 1.485) {
                var39 = -0.0183149897370363;
            } else {
                if (input[11] > 4.500000000000001) {
                    var39 = -0.008882909833719565;
                } else {
                    if (input[3] > 1.385) {
                        var39 = 0.01951773953753807;
                    } else {
                        if (input[10] > 36.50000000000001) {
                            var39 = -0.01270402851946703;
                        } else {
                            var39 = 0.002509759782333908;
                        }
                    }
                }
            }
        } else {
            var39 = -0.016541277382128662;
        }
    } else {
        if (input[3] > 0.21500000000000002) {
            if (input[3] > 1.2450000000000003) {
                var39 = 0.017197062980267717;
            } else {
                if (input[2] > 0.29500000000000004) {
                    if (input[9] > 9.500000000000002) {
                        var39 = -0.012527630296141914;
                    } else {
                        if (input[5] > 11.500000000000002) {
                            var39 = 0.017905675704884324;
                        } else {
                            var39 = -0.0037045886867823866;
                        }
                    }
                } else {
                    if (input[11] > 5.500000000000001) {
                        var39 = -0.003971316300493707;
                    } else {
                        if (input[2] > 0.015000000000000001) {
                            var39 = 0.008549928822387217;
                        } else {
                            var39 = 0.026548628835469986;
                        }
                    }
                }
            }
        } else {
            if (input[11] > 1.5000000000000002) {
                var39 = -0.014832046670137645;
            } else {
                var39 = -0.0013689591609968661;
            }
        }
    }
    var var40;
    if (input[12] <= -0.060000000000000026) {
        if (input[2] > 0.085) {
            if (input[3] > 0.7150000000000001) {
                if (input[6] > 1.5000000000000002) {
                    var40 = 0.0009445910239729866;
                } else {
                    var40 = 0.01269495458733923;
                }
            } else {
                if (input[10] > 26.500000000000004) {
                    var40 = 0.01102760161684059;
                } else {
                    if (input[2] > 0.25500000000000006) {
                        var40 = -0.011671866753104205;
                    } else {
                        var40 = -0.00021145909062943716;
                    }
                }
            }
        } else {
            if (input[12] <= -0.40499999999999986) {
                var40 = 0.012047652228873848;
            } else {
                var40 = 0.02736990936830165;
            }
        }
    } else {
        if (input[7] > 1.5000000000000002) {
            if (input[2] > 0.7150000000000001) {
                var40 = -0.007334779781857844;
            } else {
                if (input[8] > 9.500000000000002) {
                    var40 = 0.013320494426966133;
                } else {
                    if (input[12] > 0.2600000000000001) {
                        var40 = -0.013381458167456594;
                    } else {
                        var40 = 0.0028331900267251353;
                    }
                }
            }
        } else {
            if (input[3] > 0.13500000000000004) {
                if (input[0] > 1.3750000000000002) {
                    var40 = -0.01914476725154819;
                } else {
                    if (input[5] > 8.500000000000002) {
                        var40 = -0.01185705606775042;
                    } else {
                        var40 = 0.003689862601754978;
                    }
                }
            } else {
                var40 = -0.020759120397082158;
            }
        }
    }
    var var41;
    if (input[13] <= -0.075) {
        if (input[13] <= -0.8549999999999998) {
            var41 = 0.015048878001802083;
        } else {
            if (input[2] > 0.25500000000000006) {
                if (input[4] > 16.500000000000004) {
                    var41 = 0.010485363010613293;
                } else {
                    if (input[3] > 0.6950000000000001) {
                        if (input[3] > 0.8850000000000001) {
                            var41 = -0.0041920364205403435;
                        } else {
                            var41 = 0.010059345976555356;
                        }
                    } else {
                        var41 = -0.013146452045593424;
                    }
                }
            } else {
                if (input[12] > 0.02499999999999997) {
                    var41 = -0.003005606476245895;
                } else {
                    if (input[5] > 16.500000000000004) {
                        var41 = 0.0009770225051504487;
                    } else {
                        var41 = 0.013648204095668814;
                    }
                }
            }
        }
    } else {
        if (input[14] > 2.5000000000000004) {
            var41 = -0.018326654544044;
        } else {
            if (input[3] > 0.14500000000000005) {
                if (input[2] > 1.0950000000000004) {
                    var41 = -0.01343316163048642;
                } else {
                    if (input[9] > 7.500000000000001) {
                        var41 = -0.0069364895672416275;
                    } else {
                        if (input[2] > 0.43500000000000005) {
                            if (input[2] > 0.6850000000000002) {
                                var41 = 0.0024538916751804733;
                            } else {
                                var41 = -0.01269157098169689;
                            }
                        } else {
                            var41 = 0.01225748389771249;
                        }
                    }
                }
            } else {
                var41 = -0.013417858495563352;
            }
        }
    }
    var var42;
    if (input[14] <= -0.000000000000000000000000000000000010000000180025095) {
        if (input[2] > 0.16500000000000004) {
            if (input[3] > 1.175) {
                var42 = 0.011245179611013867;
            } else {
                if (input[9] > 9.500000000000002) {
                    if (input[14] <= -2.4999999999999996) {
                        var42 = 0.0044576513375201385;
                    } else {
                        var42 = -0.010235245934907598;
                    }
                } else {
                    if (input[2] > 0.6250000000000001) {
                        var42 = -0.006071139497654915;
                    } else {
                        if (input[7] > 2.5000000000000004) {
                            var42 = 0.016341256013288848;
                        } else {
                            var42 = 0.0004971387988083721;
                        }
                    }
                }
            }
        } else {
            if (input[3] > 0.9050000000000001) {
                var42 = 0.021758330366406953;
            } else {
                if (input[3] > 0.43500000000000005) {
                    var42 = 0.0027385359751047203;
                } else {
                    var42 = 0.01621621631708196;
                }
            }
        }
    } else {
        if (input[3] > 0.38500000000000006) {
            if (input[2] > 0.9350000000000002) {
                var42 = -0.013040639746783178;
            } else {
                var42 = 0.0023607810946906765;
            }
        } else {
            if (input[2] > 0.8650000000000001) {
                var42 = -0.02220683643786929;
            } else {
                if (input[3] > 0.045000000000000005) {
                    if (input[9] > 7.500000000000001) {
                        var42 = -0.015419525375150733;
                    } else {
                        var42 = -0.0042544607966891685;
                    }
                } else {
                    var42 = -0.022208001342345553;
                }
            }
        }
    }
    var var43;
    if (input[13] > 0.000000000000000000000000000000000010000000180025095) {
        if (input[12] > 0.8850000000000002) {
            var43 = -0.021739971213457054;
        } else {
            if (input[12] > 0.4350000000000001) {
                if (input[13] > 0.4450000000000001) {
                    var43 = -0.011897463490578136;
                } else {
                    if (input[6] > 2.5000000000000004) {
                        var43 = 0.0008853740821847998;
                    } else {
                        var43 = 0.021043853960080672;
                    }
                }
            } else {
                if (input[11] > 0.000000000000000000000000000000000010000000180025095) {
                    var43 = -0.011730169551765405;
                } else {
                    var43 = 0.0023254369529637398;
                }
            }
        }
    } else {
        if (input[13] <= -0.8349999999999997) {
            if (input[11] > 4.500000000000001) {
                var43 = 0.005976717221729275;
            } else {
                var43 = 0.020712305061509333;
            }
        } else {
            if (input[11] > 4.500000000000001) {
                var43 = -0.004071061428639423;
            } else {
                if (input[4] > 19.500000000000004) {
                    var43 = 0.020157481150286295;
                } else {
                    if (input[12] <= -0.43499999999999994) {
                        if (input[9] > 11.500000000000002) {
                            var43 = 0.0008457677304435081;
                        } else {
                            if (input[9] > 9.500000000000002) {
                                var43 = 0.02364312398449448;
                            } else {
                                var43 = 0.00864297576236613;
                            }
                        }
                    } else {
                        if (input[10] > 26.500000000000004) {
                            var43 = 0.00872793714325009;
                        } else {
                            var43 = -0.0004301484619636601;
                        }
                    }
                }
            }
        }
    }
    var var44;
    if (input[14] <= -0.000000000000000000000000000000000010000000180025095) {
        if (input[11] > 4.500000000000001) {
            if (input[3] > 1.2850000000000004) {
                var44 = 0.008560059790815316;
            } else {
                if (input[8] > 7.500000000000001) {
                    var44 = -0.02177863209970086;
                } else {
                    var44 = 0.0010677492695667038;
                }
            }
        } else {
            if (input[3] > 1.0150000000000003) {
                var44 = 0.01768841868922482;
            } else {
                if (input[3] > 0.20500000000000004) {
                    var44 = 0.008348305363148475;
                } else {
                    var44 = -0.0034245291617885838;
                }
            }
        }
    } else {
        if (input[3] > 0.38500000000000006) {
            if (input[11] > 3.5000000000000004) {
                if (input[6] > 2.5000000000000004) {
                    var44 = -0.016323268192960424;
                } else {
                    var44 = 0.0;
                }
            } else {
                if (input[12] > 0.6250000000000002) {
                    var44 = -0.011337378032483383;
                } else {
                    if (input[6] > 3.5000000000000004) {
                        var44 = 0.018726037214677135;
                    } else {
                        if (input[12] <= -0.3049999999999999) {
                            var44 = 0.013153969473956776;
                        } else {
                            var44 = -0.0012430176611065884;
                        }
                    }
                }
            }
        } else {
            if (input[12] > 0.8850000000000002) {
                var44 = -0.02184183608059535;
            } else {
                if (input[12] > 0.6650000000000003) {
                    var44 = 0.0027953727722511736;
                } else {
                    var44 = -0.012276511730112918;
                }
            }
        }
    }
    var var45;
    if (input[14] <= -0.000000000000000000000000000000000010000000180025095) {
        if (input[3] > 1.0350000000000004) {
            if (input[0] > 0.7250000000000001) {
                if (input[0] > 1.0450000000000002) {
                    var45 = 0.013828376461407993;
                } else {
                    var45 = -0.005655673489290587;
                }
            } else {
                var45 = 0.019039935320473933;
            }
        } else {
            if (input[11] > 5.500000000000001) {
                var45 = -0.015788842274742577;
            } else {
                if (input[10] > 22.500000000000004) {
                    if (input[8] > 8.500000000000002) {
                        var45 = 0.01993114427013048;
                    } else {
                        var45 = 0.002543845508322824;
                    }
                } else {
                    if (input[2] > 0.10500000000000002) {
                        var45 = -0.0031010080895924295;
                    } else {
                        var45 = 0.010141696891301634;
                    }
                }
            }
        }
    } else {
        if (input[0] > 1.3750000000000002) {
            var45 = -0.015378590055712286;
        } else {
            if (input[3] > 0.09500000000000001) {
                if (input[11] > 2.5000000000000004) {
                    if (input[3] > 0.21500000000000002) {
                        if (input[8] > 6.500000000000001) {
                            var45 = -0.010847056594062654;
                        } else {
                            if (input[3] > 0.7350000000000001) {
                                var45 = 0.014010777650219788;
                            } else {
                                var45 = -0.0060143542128602455;
                            }
                        }
                    } else {
                        var45 = -0.024946080628992204;
                    }
                } else {
                    var45 = 0.007282372104035599;
                }
            } else {
                var45 = -0.017338715015635966;
            }
        }
    }
    var var46;
    if (input[13] > 0.039999999999999994) {
        if (input[7] > 3.5000000000000004) {
            if (input[12] > 0.18000000000000005) {
                var46 = 0.021265793892255497;
            } else {
                var46 = -0.012134258478140534;
            }
        } else {
            if (input[6] > 2.5000000000000004) {
                var46 = -0.016794180338688125;
            } else {
                if (input[8] > 8.500000000000002) {
                    if (input[13] > 0.25500000000000006) {
                        var46 = -0.006137134244433283;
                    } else {
                        var46 = 0.00945703726067878;
                    }
                } else {
                    if (input[8] > 4.500000000000001) {
                        var46 = -0.014152249866106146;
                    } else {
                        var46 = 0.0026856064923664585;
                    }
                }
            }
        }
    } else {
        if (input[13] <= -0.8549999999999998) {
            var46 = 0.01513799747104549;
        } else {
            if (input[5] > 16.500000000000004) {
                if (input[8] > 7.500000000000001) {
                    var46 = 0.004358091823008997;
                } else {
                    if (input[1] > 1.5250000000000001) {
                        var46 = 0.0004665161314569548;
                    } else {
